{
  "layers": [
    {
      "size": 8,
      "weights": {
        "rows": 2,
        "cols": 8,
        "data": [
          [
            0.09067070563343747,
            0.295739407286606,
            0.3087217746959076,
            -0.8515414916514294,
            -0.922907398152987,
            0.0832229764090662,
            0.2181896107881283,
            0.1456417851194398
          ],
          [
            -0.09027874445426654,
            0.20958803056234318,
            -0.30888980097899044,
            -0.10645129258709965,
            0.0939243539680229,
            0.6350494115459907,
            -0.9251025120697898,
            -0.39300325053003554
          ]
        ]
      },
      "biases": {
        "rows": 1,
        "cols": 8,
        "data": [
          [
            0.00004663941688985213,
            -0.13131803401732617,
            -0.0005311650791773603,
            0.0,
            -0.0322385233470142,
            -0.08402135672918627,
            -0.09422402524922728,
            -0.10271975377541884
          ]
        ]
      },
      "activator": "ReLU"
    },
    {
      "size": 2,
      "weights": {
        "rows": 8,
        "cols": 2,
        "data": [
          [
            -0.03332198958277759,
            0.5227986292174083
          ],
          [
            0.4117471894411831,
            -0.8749321644441308
          ],
          [
            -1.2632823911586588,
            0.18021110651017738
          ],
          [
            0.5565086764410536,
            -0.5278226148418
          ],
          [
            1.233586132938101,
            0.8593554658568306
          ],
          [
            0.441988400696786,
            -0.4559690538471945
          ],
          [
            -0.35205208136467603,
            -1.4059702678635393
          ],
          [
            0.30145560885647227,
            -1.0767916423806023
          ]
        ]
      },
      "biases": {
        "rows": 1,
        "cols": 2,
        "data": [
          [
            -0.01950189361081177,
            0.04742911432340685
          ]
        ]
      },
      "activator": "Sigmoid"
    }
  ],
  "metadata": null
}