{
  "layers": [
    {
      "size": 8,
      "weights": {
        "rows": 2,
        "cols": 8,
        "data": [
          [
            0.23108626613686425,
            -0.012822473885772599,
            0.5986244068832036,
            0.010829147356717028,
            0.04339455281314312,
            -0.22113720841050796,
            0.7398340523207565,
            1.4010128191054494
          ],
          [
            -0.7785470172323117,
            1.0046460930585421,
            -0.8943756121933776,
            0.7069469929846002,
            0.2487920891768201,
            -1.312121061803304,
            0.6233504108867568,
            -0.49309537077109067
          ]
        ]
      },
      "biases": {
        "rows": 1,
        "cols": 8,
        "data": [
          [
            -0.0010306245988391314,
            -0.00038350139357726167,
            -0.000857049263411668,
            -0.020094810493570148,
            -0.00030860902054177103,
            0.0,
            -0.00007745410538519614,
            -0.0013075137409907507
          ]
        ]
      },
      "activator": "ReLU"
    },
    {
      "size": 2,
      "weights": {
        "rows": 8,
        "cols": 2,
        "data": [
          [
            -0.35110906765079897,
            0.4413242843497001
          ],
          [
            0.15822146556719574,
            0.935957903722161
          ],
          [
            -0.7068906666133322,
            -0.043290061476319155
          ],
          [
            0.5665921116800351,
            0.22879400698334318
          ],
          [
            -1.0943394912022466,
            1.095239007710312
          ],
          [
            -0.24343843205810606,
            -0.4169800161409689
          ],
          [
            -0.02925289671456994,
            0.14259826421749333
          ],
          [
            0.31365388143154804,
            1.3315949102984788
          ]
        ]
      },
      "biases": {
        "rows": 1,
        "cols": 2,
        "data": [
          [
            0.01831696308673475,
            -0.018316963086734753
          ]
        ]
      },
      "activator": "Softmax"
    }
  ],
  "metadata": null
}